{
  "architecture": [
    {
      "name": "dense",
      "type": "Dense",
      "config": {
        "units": 64,
        "activation": "relu"
      }
    },
    {
      "name": "dropout",
      "type": "Dropout",
      "config": {
        "rate": 0.2
      }
    },
    {
      "name": "dense_1",
      "type": "Dense",
      "config": {
        "units": 32,
        "activation": "relu"
      }
    },
    {
      "name": "dropout_1",
      "type": "Dropout",
      "config": {
        "rate": 0.2
      }
    },
    {
      "name": "dense_2",
      "type": "Dense",
      "config": {
        "units": 16,
        "activation": "relu"
      }
    },
    {
      "name": "dense_3",
      "type": "Dense",
      "config": {
        "units": 1,
        "activation": "linear"
      }
    }
  ],
  "weights": [
    {
      "layer_index": 0,
      "layer_name": "dense",
      "kernel": [
        [
          -0.19068413972854614,
          -0.31700727343559265,
          -0.16747161746025085,
          -0.1167730838060379,
          -0.19684170186519623,
          -0.18260110914707184,
          0.13971208035945892,
          0.15582077205181122,
          -0.18821395933628082,
          -0.22399260103702545,
          0.14981232583522797,
          -0.17223519086837769,
          -0.20692431926727295,
          0.16230686008930206,
          0.1737646460533142,
          -0.19085946679115295,
          -0.003943291492760181,
          0.204708993434906,
          -0.215196892619133,
          0.1418800801038742,
          -0.1956433653831482,
          0.187283456325531,
          0.17600955069065094,
          0.1727803647518158,
          0.3706894516944885,
          0.6759020090103149,
          0.4876638352870941,
          0.19877146184444427,
          -0.0019736418034881353,
          -0.145106703042984,
          0.092982217669487,
          -0.23559263348579407,
          -0.1559005230665207,
          -0.16353416442871094,
          0.2208189219236374,
          -0.13730858266353607,
          0.1780266910791397,
          0.20989464223384857,
          -0.20963270962238312,
          -0.20123885571956635,
          0.23051290214061737,
          0.24304501712322235,
          0.1831003725528717,
          -0.21075285971164703,
          0.23759108781814575,
          0.004589156247675419,
          -0.17866185307502747,
          -0.2534165680408478,
          -0.19450074434280396,
          0.17317670583724976,
          -0.1679118573665619,
          0.2732235789299011,
          -0.18251323699951172,
          -0.1834796667098999,
          -0.2590946853160858,
          -0.14024929702281952,
          -0.1651410311460495,
          -0.24891068041324615,
          0.1785205900669098,
          0.0011836691992357373,
          -0.16802763938903809,
          0.23128150403499603,
          -0.17554892599582672,
          0.16040997207164764
        ]
      ],
      "bias": [
        -0.08151694387197495,
        -0.2579198181629181,
        -0.1898416131734848,
        -0.11941764503717422,
        -0.2700069844722748,
        -0.19972938299179077,
        -0.05123767629265785,
        0.09745865315198898,
        -0.2572903037071228,
        -0.19326961040496826,
        0.029698466882109642,
        -0.1895514875650406,
        -0.206776425242424,
        -0.035805653780698776,
        -0.0013011636910960078,
        -0.18528172373771667,
        -0.024587173014879227,
        0.08253244310617447,
        -0.22412165999412537,
        -0.01540335826575756,
        -0.1449522078037262,
        0.10670644044876099,
        -0.37833863496780396,
        0.11589743942022324,
        0.1916014552116394,
        0.18984748423099518,
        0.05948375537991524,
        0.11519745737314224,
        -0.015509496442973614,
        -0.10899356752634048,
        0.1546355038881302,
        -0.1925208419561386,
        -0.07969050109386444,
        -0.20363633334636688,
        0.0035926164127886295,
        -0.09043458104133606,
        -0.014362795278429985,
        -0.39756518602371216,
        -0.24911445379257202,
        -0.23872849345207214,
        -0.42840343713760376,
        0.10972747206687927,
        0.09170787781476974,
        -0.1179298684000969,
        0.06985597312450409,
        -0.022071562707424164,
        -0.15512226521968842,
        -0.2830516993999481,
        -0.19212490320205688,
        0.067057766020298,
        -0.1959676593542099,
        -0.0299107413738966,
        -0.06600823253393173,
        -0.12653368711471558,
        -0.17533443868160248,
        -0.24124199151992798,
        -0.204366534948349,
        -0.2755695581436157,
        0.12296289205551147,
        -0.00939373578876257,
        -0.14390158653259277,
        0.003966576419770718,
        -0.10648158192634583,
        -0.005460693500936031
      ]
    },
    {
      "layer_index": 2,
      "layer_name": "dense_1",
      "kernel": [
        [
          -0.47219040989875793,
          -0.3737320005893707,
          0.22560197114944458,
          0.09977787733078003,
          0.09954944998025894,
          -0.2035079002380371,
          0.1312895566225052,
          -0.12678541243076324,
          0.06362105160951614,
          -0.303352415561676,
          0.09330901503562927,
          -0.22928306460380554,
          -0.1045040637254715,
          -0.031222449615597725,
          -0.12718656659126282,
          0.12998279929161072,
          -0.4593961238861084,
          -0.24905258417129517,
          -0.611893355846405,
          -0.002262976486235857,
          0.20169229805469513,
          -0.12567006051540375,
          0.10949797183275223,
          -0.06506407260894775,
          -0.17472954094409943,
          -0.17974720895290375,
          -0.45865222811698914,
          0.1729428917169571,
          -0.3581768274307251,
          -0.24965523183345795,
          -0.4352104365825653,
          -0.031477175652980804
        ],
        [
          0.0014841597294434905,
          -0.19620808959007263,
          0.30374276638031006,
          -0.1565733551979065,
          0.19491177797317505,
          -0.0048041753470897675,
          0.32660937309265137,
          0.17306876182556152,
          -0.39319247007369995,
          -0.00038025109097361565,
          -0.34210318326950073,
          -0.17416273057460785,
          -0.33787503838539124,
          -0.14345362782478333,
          -0.24119152128696442,
          -0.16773930191993713,
          -0.07150101661682129,
          -0.270270437002182,
          0.040136005729436874,
          -0.08771684020757675,
          0.19527791440486908,
          -0.0017433594912290573,
          0.3279934823513031,
          -0.04936884343624115,
          -0.04572397470474243,
          0.15334388613700867,
          -0.30267632007598877,
          -0.13213962316513062,
          -0.2851753234863281,
          -0.29354894161224365,
          -0.039956629276275635,
          -0.17402680218219757
        ],
        [
          -0.04796915501356125,
          0.09310998022556305,
          0.34781554341316223,
          -0.2351158708333969,
          0.28623145818710327,
          -0.18005570769309998,
          0.33088210225105286,
          0.05644528567790985,
          0.12364143878221512,
          -0.08341821283102036,
          -0.115392304956913,
          -0.2997037172317505,
          -0.09305820614099503,
          -0.31416571140289307,
          0.18214042484760284,
          0.25871291756629944,
          -0.1711251437664032,
          -0.03313417360186577,
          -0.19389663636684418,
          -0.16589659452438354,
          0.07830586284399033,
          -0.13850511610507965,
          0.18134284019470215,
          0.12175855785608292,
          0.06070379167795181,
          -0.3060629963874817,
          -0.14136961102485657,
          0.006524950265884399,
          0.0009917746065184474,
          -0.2559475600719452,
          0.06857385486364365,
          -0.12026932090520859
        ],
        [
          -0.18886150419712067,
          -0.47524815797805786,
          0.3106119930744171,
          -0.0862652137875557,
          0.08968324959278107,
          -0.5740786194801331,
          0.21694043278694153,
          -0.2437344193458557,
          0.17673750221729279,
          -0.06299612671136856,
          0.07935260981321335,
          0.031777042895555496,
          0.018777314573526382,
          -0.09524708986282349,
          0.06326217204332352,
          0.21270696818828583,
          -0.06573810428380966,
          0.10473553836345673,
          -0.08935412019491196,
          -0.05473781004548073,
          -0.10816972702741623,
          0.039629966020584106,
          0.08451692014932632,
          -0.1801847219467163,
          -0.3090711832046509,
          -0.07242882251739502,
          -0.14124272763729095,
          0.04668072983622551,
          -0.07959996908903122,
          0.1731894612312317,
          -0.3675350248813629,
          -0.07586599141359329
        ],
        [
          0.13498274981975555,
          -0.022448213770985603,
          0.31770431995391846,
          0.2180568128824234,
          0.023507149890065193,
          -0.15182974934577942,
          0.24712426960468292,
          0.14421632885932922,
          -0.20970478653907776,
          0.007263803388923407,
          0.0547013022005558,
          -0.313352108001709,
          -0.1643691211938858,
          -0.08120934665203094,
          -0.07100095599889755,
          0.18845652043819427,
          -0.007277010474354029,
          0.12183205783367157,
          0.10434546321630478,
          -0.0151352034881711,
          0.012573379091918468,
          -0.14466163516044617,
          0.17353570461273193,
          0.15243582427501678,
          -0.2497255653142929,
          0.15369009971618652,
          -0.12756964564323425,
          -0.14622624218463898,
          -0.005076367408037186,
          -0.050948332995176315,
          0.1303362101316452,
          0.07061633467674255
        ],
        [
          -0.2540794312953949,
          -0.21324187517166138,
          0.0941888689994812,
          0.09032806754112244,
          0.04083447903394699,
          -0.21366192400455475,
          0.2496478259563446,
          0.2164285033941269,
          0.14548511803150177,
          0.02565056085586548,
          -0.14018312096595764,
          -0.4017699062824249,
          -0.21524767577648163,
          0.0006159158074297011,
          -0.31095072627067566,
          -0.03210459277033806,
          0.16908949613571167,
          -0.2075476199388504,
          -0.25475773215293884,
          -0.28979745507240295,
          0.014004007913172245,
          -0.013786510564386845,
          0.29103803634643555,
          0.013190606608986855,
          -0.16162201762199402,
          -0.27032193541526794,
          -0.5987522602081299,
          -0.11237037181854248,
          -0.45480766892433167,
          0.04555950313806534,
          0.1007581278681755,
          -0.5468450784683228
        ],
        [
          -0.05020323768258095,
          0.1139533594250679,
          -0.1128629818558693,
          -0.1988382190465927,
          0.1135869175195694,
          0.09921320527791977,
          0.03582620993256569,
          0.12055262923240662,
          0.12645213305950165,
          0.030246751382946968,
          -0.2770645320415497,
          0.16042262315750122,
          0.32921671867370605,
          0.19051770865917206,
          -0.15216879546642303,
          0.19266058504581451,
          -0.24775879085063934,
          0.08111710101366043,
          -0.011640071868896484,
          0.021226463839411736,
          -0.31218084692955017,
          -0.4188023805618286,
          -0.2107039839029312,
          0.20649945735931396,
          0.10842859745025635,
          0.0340995192527771,
          0.23431682586669922,
          -0.02503679320216179,
          -0.2836947441101074,
          0.17137230932712555,
          0.1801435500383377,
          0.08332964777946472
        ],
        [
          0.3051135540008545,
          0.1536252498626709,
          -0.41491687297821045,
          0.13449804484844208,
          -0.269428014755249,
          -0.04900228977203369,
          -0.37179821729660034,
          -0.1436472237110138,
          0.36580976843833923,
          0.026440640911459923,
          0.010326201096177101,
          0.16870272159576416,
          0.14204208552837372,
          -0.00023690819216426462,
          0.0074378871358931065,
          -0.1383460909128189,
          0.05441031605005264,
          -0.019914697855710983,
          0.26527729630470276,
          -0.025121649727225304,
          0.011872772127389908,
          -0.06341324746608734,
          -0.4070669412612915,
          0.08711811900138855,
          0.11480766534805298,
          0.1150565817952156,
          -0.24874825775623322,
          -0.15295106172561646,
          0.17695735394954681,
          0.02048434689640999,
          -0.21968133747577667,
          0.09464394301176071
        ],
        [
          0.08208554238080978,
          -0.10803762078285217,
          0.3074724078178406,
          -0.08301519602537155,
          0.04890792816877365,
          -0.07624644041061401,
          0.36854252219200134,
          0.2612577974796295,
          -0.23612189292907715,
          0.1421339511871338,
          -0.009693553671240807,
          -0.1495371311903,
          0.22085140645503998,
          -0.18776214122772217,
          0.13500390946865082,
          -0.15638276934623718,
          -0.11514672636985779,
          -0.07891402393579483,
          -0.1488615870475769,
          0.08117873966693878,
          0.010649662464857101,
          -0.24953749775886536,
          0.11796241998672485,
          0.0655258372426033,
          -0.2992790639400482,
          0.1594945341348648,
          -0.13877761363983154,
          -0.13350573182106018,
          0.03564932569861412,
          0.22728951275348663,
          -0.10982535034418106,
          -0.37258270382881165
        ],
        [
          -0.3007897138595581,
          -0.22015976905822754,
          0.22483259439468384,
          -0.1645197570323944,
          0.02204158902168274,
          -0.07395955175161362,
          0.40935489535331726,
          0.12757353484630585,
          0.12293463200330734,
          0.09367427974939346,
          -0.07037628442049026,
          -0.1173943504691124,
          -0.04291892424225807,
          -0.0674949511885643,
          -0.4010484218597412,
          0.2314523309469223,
          -0.011209203861653805,
          0.15463313460350037,
          -0.03424176946282387,
          -0.43668457865715027,
          0.33117640018463135,
          0.07671254128217697,
          0.08845765143632889,
          -0.21633721888065338,
          -0.3228358030319214,
          -0.0576128289103508,
          -0.4779371917247772,
          0.13880936801433563,
          -0.16911721229553223,
          0.12565112113952637,
          -0.16037647426128387,
          -0.3645762801170349
        ],
        [
          0.1971791684627533,
          0.2126721739768982,
          -0.15877753496170044,
          0.04651140049099922,
          0.08306694775819778,
          0.2891925275325775,
          0.058638472110033035,
          -0.15172943472862244,
          0.14352065324783325,
          -0.07940491288900375,
          -0.32876813411712646,
          0.27725765109062195,
          0.07860837131738663,
          -0.10063822567462921,
          -0.15134955942630768,
          -0.3375053405761719,
          -0.0005872349720448256,
          -0.3034805357456207,
          0.016084076836705208,
          -0.19816496968269348,
          -0.33894410729408264,
          0.13522501289844513,
          -0.18485520780086517,
          -0.04669608175754547,
          -0.021419888362288475,
          0.12817072868347168,
          -0.040016837418079376,
          0.03888733685016632,
          0.1398112177848816,
          0.149394229054451,
          0.1386336088180542,
          0.0729132667183876
        ],
        [
          0.034942761063575745,
          0.003198417369276285,
          0.3760954737663269,
          -0.1259242743253708,
          -0.005645601078867912,
          -0.058343932032585144,
          0.37573039531707764,
          -0.16791151463985443,
          -0.045431531965732574,
          -0.01712494157254696,
          -0.10666166990995407,
          -0.34961214661598206,
          -0.24539019167423248,
          -0.32145124673843384,
          0.02577153965830803,
          -0.0471782460808754,
          0.14409755170345306,
          -0.16554932296276093,
          -0.09306646883487701,
          -0.16569386422634125,
          -0.03330133110284805,
          -0.0603996179997921,
          0.16174285113811493,
          0.13530577719211578,
          0.12405890971422195,
          -0.28836143016815186,
          -0.1426132321357727,
          0.14859645068645477,
          -0.1915522664785385,
          0.1719999611377716,
          -0.11039254069328308,
          -0.04912029206752777
        ],
        [
          -0.05492515489459038,
          0.042455971240997314,
          0.4656203091144562,
          0.08535042405128479,
          -0.08719011396169662,
          -0.04442209005355835,
          0.13196299970149994,
          0.13736799359321594,
          -0.15704374015331268,
          -0.28490155935287476,
          0.07300090044736862,
          -0.33788901567459106,
          0.176527202129364,
          -0.2025216817855835,
          0.2687220573425293,
          0.0656532570719719,
          -0.011422039940953255,
          0.19903959333896637,
          -0.12843959033489227,
          -0.4640122950077057,
          0.10555408149957657,
          -0.4428032636642456,
          0.20570708811283112,
          0.21565786004066467,
          -0.14840291440486908,
          0.14483164250850677,
          0.008367645554244518,
          0.3203386962413788,
          0.00418346282094717,
          0.1767052263021469,
          0.05192163586616516,
          -0.05988473445177078
        ],
        [
          -0.2911120057106018,
          0.2588859498500824,
          -0.07362711429595947,
          -0.2297610491514206,
          0.156397745013237,
          0.18710778653621674,
          -0.1453399360179901,
          -0.04470067098736763,
          -0.10841871052980423,
          -0.04599369317293167,
          -0.15231621265411377,
          0.191741481423378,
          -0.027546890079975128,
          0.2698233723640442,
          -0.09698519855737686,
          -0.032489582896232605,
          -0.03318515792489052,
          -0.0929131731390953,
          0.11377228796482086,
          -0.0345451720058918,
          -0.14915727078914642,
          -0.5113086104393005,
          -0.0712289810180664,
          0.08274538069963455,
          -0.31291463971138,
          0.11064360290765762,
          0.08692476898431778,
          -0.0319095104932785,
          -0.24937313795089722,
          -0.009366940706968307,
          0.13252030313014984,
          0.025752084329724312
        ],
        [
          0.179637610912323,
          0.053038518875837326,
          -0.3096303939819336,
          -0.12192165106534958,
          -0.11525198817253113,
          0.02841249294579029,
          -0.10028302669525146,
          -0.27745679020881653,
          0.1415693759918213,
          -0.1142338439822197,
          -0.06813188642263412,
          0.19757762551307678,
          -0.03220650181174278,
          0.04675966873764992,
          0.007979224435985088,
          0.2118440866470337,
          0.12343129515647888,
          -0.13394810259342194,
          0.10021669417619705,
          -0.08637485653162003,
          -0.09724944829940796,
          -0.08468329161405563,
          -0.19091399013996124,
          -0.14988954365253448,
          0.023140301927924156,
          0.255700945854187,
          -0.0650353878736496,
          -0.21194301545619965,
          -0.18806403875350952,
          0.4575043320655823,
          -0.05124354735016823,
          -0.07781073451042175
        ],
        [
          -0.4406980574131012,
          -0.1857820302248001,
          0.3603033125400543,
          0.07222286611795425,
          0.24428491294384003,
          -0.2715551257133484,
          -0.02249540016055107,
          0.046861596405506134,
          0.274848997592926,
          -0.263776034116745,
          -0.43914473056793213,
          -0.3353661894798279,
          -0.21014976501464844,
          -0.4298028349876404,
          0.2092929482460022,
          0.167547807097435,
          -0.35080379247665405,
          -0.28621429204940796,
          -0.12839609384536743,
          -0.2704930901527405,
          0.19336606562137604,
          -0.10369507223367691,
          -0.0278617013245821,
          0.13299472630023956,
          -0.11243762820959091,
          -0.11544504761695862,
          -0.15288086235523224,
          0.18444091081619263,
          -0.4054659307003021,
          -0.16234606504440308,
          -0.27258071303367615,
          -0.3753231465816498
        ],
        [
          -0.026570359244942665,
          0.09861451387405396,
          -0.12307380139827728,
          -0.04823294281959534,
          -0.11798053979873657,
          -0.12978026270866394,
          -0.17914877831935883,
          0.08912267535924911,
          -0.10378304123878479,
          0.04751599580049515,
          0.12074706703424454,
          -0.03202608972787857,
          0.021084550768136978,
          0.1302158236503601,
          0.1606215238571167,
          0.17355959117412567,
          -0.13229231536388397,
          0.18598495423793793,
          0.11641208827495575,
          -0.18145975470542908,
          -0.025302903726696968,
          0.03388003259897232,
          -0.10270416736602783,
          0.2143927812576294,
          -0.08609024435281754,
          -0.17365381121635437,
          0.24831551313400269,
          0.07361382246017456,
          0.1360132098197937,
          0.163099005818367,
          0.2197701781988144,
          0.015095820650458336
        ],
        [
          0.1416328102350235,
          0.20487676560878754,
          -0.7950466871261597,
          -0.24522845447063446,
          -0.3228066563606262,
          0.1768227517604828,
          -0.07568392902612686,
          0.08139924705028534,
          0.12467528134584427,
          -0.1973561942577362,
          -0.05298718065023422,
          0.23097309470176697,
          -0.22511927783489227,
          0.17067569494247437,
          0.06573979556560516,
          -0.08801905810832977,
          0.120916448533535,
          0.023451093584299088,
          0.14869722723960876,
          -0.1796274185180664,
          -0.20167969167232513,
          -0.01134056132286787,
          -0.2478969842195511,
          -0.20724357664585114,
          0.07373647391796112,
          0.22454486787319183,
          -0.3270336091518402,
          -0.1304844617843628,
          -0.10789735615253448,
          0.237376868724823,
          -0.08569896221160889,
          -0.0705423504114151
        ],
        [
          -0.3337414264678955,
          -0.04264109209179878,
          0.39570021629333496,
          -0.15425553917884827,
          -0.1498098075389862,
          -0.2239948958158493,
          0.22812800109386444,
          -0.03176102787256241,
          -0.12058787792921066,
          -0.20563621819019318,
          0.034563977271318436,
          -0.17744706571102142,
          -0.19906523823738098,
          -0.3246303200721741,
          0.018784910440444946,
          0.24551346898078918,
          -0.16278567910194397,
          -0.16266682744026184,
          0.0074006360955536366,
          0.01361556351184845,
          0.035426344722509384,
          0.04642196744680405,
          0.29699012637138367,
          0.06674524396657944,
          0.014596565626561642,
          0.16708135604858398,
          -0.17417359352111816,
          0.19579611718654633,
          -0.3065561056137085,
          -0.18462689220905304,
          0.016101224347949028,
          -0.16413551568984985
        ],
        [
          0.11030052602291107,
          0.050431765615940094,
          -0.34785139560699463,
          -0.1333066076040268,
          -0.0665082186460495,
          0.21325398981571198,
          0.01473922748118639,
          -0.07028554379940033,
          0.3445514738559723,
          0.1229001134634018,
          0.04136296361684799,
          0.28651902079582214,
          0.014359002001583576,
          0.11114197224378586,
          0.013507859781384468,
          -0.08325546979904175,
          -0.05892949551343918,
          0.10376811027526855,
          -0.034372638911008835,
          -0.22716091573238373,
          -0.049387745559215546,
          -0.09702064096927643,
          -0.17292886972427368,
          -0.08169854432344437,
          0.22586461901664734,
          0.19130367040634155,
          0.328154593706131,
          -0.05951929837465286,
          -0.20821250975131989,
          -0.20584125816822052,
          0.11955644935369492,
          -0.022059405222535133
        ],
        [
          -0.45964309573173523,
          -0.1456330567598343,
          0.4032193422317505,
          -0.22750616073608398,
          0.013304500840604305,
          -0.07949656248092651,
          -0.000723638164345175,
          -0.031302791088819504,
          -0.33326059579849243,
          -0.13464191555976868,
          -0.24780060350894928,
          -0.08482222259044647,
          -0.11715028434991837,
          -0.16623906791210175,
          0.0633583664894104,
          0.053903140127658844,
          -0.18250200152397156,
          -0.25075528025627136,
          -0.40848562121391296,
          -0.30416637659072876,
          0.1965414136648178,
          0.14150916039943695,
          -0.1007472574710846,
          -0.08415518701076508,
          -0.09167074412107468,
          -0.6100971102714539,
          -0.295265793800354,
          0.18343335390090942,
          -0.24810361862182617,
          0.27320605516433716,
          -0.1759485900402069,
          -0.3817363679409027
        ],
        [
          0.11470310389995575,
          -0.0633431151509285,
          -0.4821937382221222,
          -0.07216159254312515,
          -0.18351733684539795,
          0.06615148484706879,
          -0.16713660955429077,
          0.016461649909615517,
          -0.30840250849723816,
          -0.03399615362286568,
          0.12274567037820816,
          0.28755131363868713,
          0.2320007085800171,
          -0.07380270212888718,
          -0.010884398594498634,
          -0.23580484092235565,
          -0.0021441816352307796,
          -0.08550795167684555,
          0.14622578024864197,
          -0.1335839182138443,
          0.09739594906568527,
          -0.20301349461078644,
          -0.08904974907636642,
          0.3192957937717438,
          0.3833349049091339,
          0.24984514713287354,
          0.12911787629127502,
          -0.25029700994491577,
          0.11452526599168777,
          -0.018916292116045952,
          -0.24932758510112762,
          0.28118836879730225
        ],
        [
          -0.4724923372268677,
          -0.41169774532318115,
          -0.13546182215213776,
          -0.12895745038986206,
          -0.28248584270477295,
          -0.5564236044883728,
          -0.0828358381986618,
          0.19939608871936798,
          -0.4687531888484955,
          0.08533941209316254,
          0.11754466593265533,
          -0.8860272765159607,
          0.17446750402450562,
          -0.14376598596572876,
          -0.13398616015911102,
          0.16802601516246796,
          -0.630744993686676,
          -0.15899057686328888,
          -0.1414881944656372,
          -0.2811778485774994,
          0.008184228092432022,
          0.06999083608388901,
          0.2170082926750183,
          -0.18043643236160278,
          -0.2511064112186432,
          -0.5044580101966858,
          -0.010116885416209698,
          -0.07641851902008057,
          -0.5397152304649353,
          -0.34467077255249023,
          -0.17728771269321442,
          -0.4540803134441376
        ],
        [
          0.14588135480880737,
          0.020382383838295937,
          -0.5856743454933167,
          -0.23270440101623535,
          0.0743246003985405,
          0.13058990240097046,
          -0.3629842698574066,
          0.17276589572429657,
          0.10147397220134735,
          -0.05550157278776169,
          0.02629830501973629,
          0.1880541890859604,
          -0.09280642867088318,
          -0.09754599630832672,
          -0.11478421837091446,
          0.025255929678678513,
          0.19081604480743408,
          -0.14989928901195526,
          0.0595531091094017,
          -0.16170655190944672,
          -0.21163207292556763,
          -0.07790563255548477,
          -0.4028862416744232,
          0.07353250682353973,
          0.10452441871166229,
          -0.07251616567373276,
          0.1155780777335167,
          -0.16190935671329498,
          0.05580498278141022,
          0.1774880439043045,
          0.2524265944957733,
          0.07236805558204651
        ],
        [
          0.20892296731472015,
          0.14719215035438538,
          -0.7556328773498535,
          -0.10297732800245285,
          -0.28026509284973145,
          0.07950670272111893,
          -0.11801602691411972,
          -0.15346109867095947,
          -0.05667712539434433,
          -0.02072039060294628,
          -0.1298302263021469,
          0.3254774212837219,
          0.3967970311641693,
          0.08053316175937653,
          0.15572097897529602,
          -0.2347065657377243,
          0.15867038071155548,
          0.023342639207839966,
          -0.7917792797088623,
          -0.10145655274391174,
          -0.19309544563293457,
          -0.10956302285194397,
          -0.466804176568985,
          -0.03454974666237831,
          0.22416546940803528,
          0.29843708872795105,
          -0.14448560774326324,
          -0.20331187546253204,
          0.06413893401622772,
          -0.11253808438777924,
          -0.30798041820526123,
          -0.20711307227611542
        ],
        [
          0.04501108080148697,
          -0.7533746361732483,
          -0.6374033689498901,
          -0.21490849554538727,
          -0.2871699333190918,
          0.31937316060066223,
          -0.37949880957603455,
          -0.06826268881559372,
          -0.11416563391685486,
          -0.20268511772155762,
          -0.04529030621051788,
          0.2092270702123642,
          -0.4919761121273041,
          -0.003220097627490759,
          0.5450795292854309,
          0.024992363527417183,
          -0.05207211151719093,
          0.05841551348567009,
          -0.14433027803897858,
          0.6536635160446167,
          0.014656724408268929,
          -0.01644359715282917,
          0.08200002461671829,
          0.07977038621902466,
          0.036264557391405106,
          0.14784304797649384,
          -0.3247078061103821,
          -0.12268174439668655,
          0.05395941063761711,
          -0.24549664556980133,
          0.47584933042526245,
          0.21732936799526215
        ],
        [
          -0.4441620409488678,
          0.12131468206644058,
          0.11468818783760071,
          -0.2348046898841858,
          -0.0698787048459053,
          0.48293545842170715,
          -0.025130072608590126,
          -0.10125797241926193,
          -0.021714337170124054,
          -0.18735185265541077,
          -0.024394027888774872,
          0.42051616311073303,
          -0.3025366961956024,
          0.22727544605731964,
          -0.49571749567985535,
          0.02717963606119156,
          0.24448440968990326,
          0.018298454582691193,
          0.01297055184841156,
          -0.10461186617612839,
          0.01647782139480114,
          -0.14366915822029114,
          -0.17182059586048126,
          0.07973146438598633,
          -0.16944587230682373,
          0.22467078268527985,
          -0.30946260690689087,
          -0.07680758833885193,
          -0.11711309850215912,
          -0.4297999143600464,
          -0.3714168667793274,
          0.20289842784404755
        ],
        [
          0.2980608642101288,
          -0.013650942593812943,
          -0.36571112275123596,
          0.16180521249771118,
          -0.02954978495836258,
          0.2471074014902115,
          -0.005079279653728008,
          -0.23600906133651733,
          -0.07824547588825226,
          0.06137298047542572,
          -0.26229003071784973,
          0.21169358491897583,
          -0.13867245614528656,
          0.2606009542942047,
          -0.21966347098350525,
          -0.06267691403627396,
          0.2100929319858551,
          -0.20747654139995575,
          -0.014515507034957409,
          -0.0974632278084755,
          0.06137575954198837,
          -0.03450453653931618,
          -0.027862124145030975,
          0.048627786338329315,
          0.10283835977315903,
          0.18085752427577972,
          0.028797442093491554,
          -0.1167856827378273,
          0.09000980108976364,
          0.36385655403137207,
          -0.2783200442790985,
          0.009068540297448635
        ],
        [
          -0.11128495633602142,
          0.09980514645576477,
          -0.019835762679576874,
          0.24704128503799438,
          -0.2505939304828644,
          -0.028021546080708504,
          -0.08127959072589874,
          0.21505093574523926,
          -0.041396841406822205,
          0.20320706069469452,
          0.20857521891593933,
          -0.16815564036369324,
          0.05888885259628296,
          -0.09829310327768326,
          -0.029936060309410095,
          -0.24792078137397766,
          -0.00824123527854681,
          -0.07827599346637726,
          0.19115065038204193,
          -0.0038461198564618826,
          -0.039234939962625504,
          0.073114775121212,
          0.1853957176208496,
          -0.11214760690927505,
          0.006285730749368668,
          0.09786999970674515,
          -0.181484192609787,
          0.12517747282981873,
          0.18639065325260162,
          0.08062271773815155,
          -0.05002276226878166,
          -0.11443072557449341
        ],
        [
          -0.036869242787361145,
          -0.266220360994339,
          0.4233218729496002,
          -0.056487083435058594,
          0.05425001680850983,
          -0.04946912080049515,
          0.02371061034500599,
          0.1153377890586853,
          0.08259578049182892,
          -0.14113208651542664,
          -0.29736432433128357,
          -0.19093848764896393,
          0.15148226916790009,
          -0.16269905865192413,
          -0.10200358927249908,
          -0.027823466807603836,
          -0.13634537160396576,
          -0.30992504954338074,
          -0.5743426084518433,
          -0.32368412613868713,
          0.009620524011552334,
          -0.0808190107345581,
          -0.02849729172885418,
          0.02569207176566124,
          -0.2593708336353302,
          -0.16229435801506042,
          -0.08947066962718964,
          -0.05719681829214096,
          0.11672917008399963,
          0.2479812204837799,
          -0.30124902725219727,
          -0.5332038402557373
        ],
        [
          -0.0004589521558955312,
          0.06571999192237854,
          -0.10422209650278091,
          -0.22072911262512207,
          -0.3845537006855011,
          -0.1628243625164032,
          -0.23716764152050018,
          -0.870635449886322,
          0.07596158236265182,
          -0.03593214601278305,
          -0.3689796030521393,
          0.10998903959989548,
          0.07633547484874725,
          0.036699164658784866,
          -0.12570780515670776,
          -0.46922507882118225,
          0.15288685262203217,
          0.08984406292438507,
          0.15040366351604462,
          -0.0023196516558527946,
          -0.04463774338364601,
          0.07185196131467819,
          -0.19837921857833862,
          -0.2888633608818054,
          0.10947500169277191,
          0.13851185142993927,
          -0.07280418276786804,
          -0.023915225639939308,
          0.19511571526527405,
          -0.014720420353114605,
          -0.002297003287822008,
          -0.2164071947336197
        ],
        [
          0.08326257765293121,
          -0.020953938364982605,
          0.09467367827892303,
          0.1353074014186859,
          0.09305751323699951,
          0.12009985744953156,
          0.3974272310733795,
          0.07442114502191544,
          -0.009834599681198597,
          -0.1958943009376526,
          0.10604067891836166,
          -0.10946129262447357,
          0.05363231524825096,
          -0.053839631378650665,
          0.0607261136174202,
          0.0035484645050019026,
          -0.10119578242301941,
          -0.17423304915428162,
          0.04728767275810242,
          -0.2757313549518585,
          -0.036971889436244965,
          -0.2663251459598541,
          0.13660269975662231,
          0.13314686715602875,
          -0.3183625638484955,
          -0.20746789872646332,
          -0.2351282387971878,
          0.2121441513299942,
          -0.3039889931678772,
          -0.09800601750612259,
          0.08113358914852142,
          -0.31535035371780396
        ],
        [
          -0.44886744022369385,
          -0.1503472924232483,
          0.14715184271335602,
          0.07895694673061371,
          0.03397982940077782,
          -0.4187999367713928,
          0.2368846833705902,
          0.08053524792194366,
          0.30137577652931213,
          0.12924471497535706,
          -0.18208211660385132,
          -0.2496911585330963,
          -0.10225680470466614,
          -0.14022766053676605,
          0.12105054408311844,
          -0.12344297766685486,
          -0.6558319330215454,
          -0.32114338874816895,
          -0.1819850355386734,
          0.041849300265312195,
          -0.016502773389220238,
          -0.0650380551815033,
          0.12402868270874023,
          -0.02370402403175831,
          -0.3118917942047119,
          -0.4308004379272461,
          -0.2854923903942108,
          -0.015312565490603447,
          -0.20639367401599884,
          0.20040589570999146,
          -0.3181176483631134,
          -0.03669869527220726
        ],
        [
          -0.17504310607910156,
          -0.12364450097084045,
          0.27807602286338806,
          0.16916726529598236,
          0.23992767930030823,
          0.053870197385549545,
          0.13899993896484375,
          0.28449562191963196,
          -0.03855155408382416,
          -0.30267494916915894,
          0.21706312894821167,
          0.2725372016429901,
          -0.009176554158329964,
          -0.18185855448246002,
          0.12880824506282806,
          -0.07331078499555588,
          0.1556389480829239,
          0.03655063733458519,
          -0.47745275497436523,
          0.15925869345664978,
          0.30859965085983276,
          -0.3751557171344757,
          0.13899420201778412,
          0.17136800289154053,
          -0.3095526695251465,
          -0.033578768372535706,
          -0.18565982580184937,
          0.0557735338807106,
          -0.1944580227136612,
          0.1693863570690155,
          -0.022774353623390198,
          0.1418386697769165
        ],
        [
          -0.44995567202568054,
          -0.038162700831890106,
          0.15834340453147888,
          0.1755599081516266,
          -0.13710512220859528,
          0.22067147493362427,
          0.060097262263298035,
          0.05014354735612869,
          0.3917009234428406,
          0.10201741755008698,
          -0.015339583158493042,
          0.22348468005657196,
          0.157782644033432,
          0.12920033931732178,
          0.03757245093584061,
          0.20518480241298676,
          0.025503169745206833,
          -0.23789751529693604,
          0.04176179692149162,
          -0.1915435791015625,
          -0.08995016664266586,
          -0.3421734869480133,
          -0.12950865924358368,
          0.12174933403730392,
          -0.11839313805103302,
          0.17388392984867096,
          0.04212828353047371,
          0.031211551278829575,
          -0.20280945301055908,
          -0.007227552123367786,
          0.0013698437251150608,
          -0.10913298279047012
        ],
        [
          -0.1718425154685974,
          -0.4334496259689331,
          0.16787852346897125,
          -0.08936695009469986,
          -0.14154458045959473,
          -0.34027743339538574,
          0.10795628279447556,
          -0.006873308680951595,
          0.08879002928733826,
          0.15107367932796478,
          0.20058634877204895,
          0.020960625261068344,
          -0.005399223417043686,
          -0.14363490045070648,
          0.14308471977710724,
          0.23477640748023987,
          -0.4715411067008972,
          -0.15979593992233276,
          0.048444975167512894,
          -0.3810661733150482,
          0.07008114457130432,
          0.17526495456695557,
          0.23312696814537048,
          -0.050280775874853134,
          -0.10557132214307785,
          -0.16272220015525818,
          -0.26498550176620483,
          0.21418118476867676,
          -0.3706887364387512,
          -0.0656161829829216,
          -0.2762131094932556,
          -0.03203631192445755
        ],
        [
          -0.028152847662568092,
          0.19125781953334808,
          -0.11343058943748474,
          0.09130103886127472,
          -0.11874935775995255,
          0.08496781438589096,
          -0.018954351544380188,
          -0.1415071338415146,
          -0.2740291655063629,
          -0.0222893375903368,
          0.07741616666316986,
          0.3051359951496124,
          -0.10382804274559021,
          0.17145884037017822,
          0.027056168764829636,
          0.11310384422540665,
          0.01194702833890915,
          -0.10228734463453293,
          0.1383766382932663,
          -0.19058586657047272,
          0.029537241905927658,
          -0.32309645414352417,
          0.16808919608592987,
          -0.07960910350084305,
          0.08542415499687195,
          0.19435453414916992,
          0.3251100182533264,
          -0.21628537774085999,
          -0.102277010679245,
          0.017032213509082794,
          -0.07115987688302994,
          0.1663273274898529
        ],
        [
          -0.6299746036529541,
          -0.3120332658290863,
          0.021795205771923065,
          0.09679237008094788,
          -0.06054836884140968,
          -0.6732363104820251,
          -0.17097215354442596,
          -0.23314277827739716,
          -0.13038626313209534,
          -0.24626341462135315,
          -0.014525002799928188,
          -0.6862699389457703,
          -0.12720663845539093,
          -0.1859338879585266,
          -0.16240599751472473,
          0.09434999525547028,
          -0.6428288221359253,
          -0.07428083568811417,
          0.16413027048110962,
          -0.14297623932361603,
          -0.045232631266117096,
          -0.2603503167629242,
          -0.19105243682861328,
          -0.3073652386665344,
          -0.4445505142211914,
          -0.34574437141418457,
          -0.054907817393541336,
          0.061351925134658813,
          -0.5771756172180176,
          -0.26703524589538574,
          -0.2670604884624481,
          -0.4118684232234955
        ],
        [
          -0.18748033046722412,
          0.07476072013378143,
          0.32853859663009644,
          -0.13923853635787964,
          0.0834752693772316,
          0.0035133727360516787,
          0.2543852925300598,
          -0.010168636217713356,
          0.07361609488725662,
          0.006109545473009348,
          0.049265362322330475,
          -0.0929315835237503,
          -0.33794307708740234,
          -0.2726435661315918,
          0.13459616899490356,
          -0.011141649447381496,
          0.011968995444476604,
          0.11374729871749878,
          -0.20569907128810883,
          -0.2613902688026428,
          0.3156909644603729,
          -0.3924255669116974,
          -0.0005545655731111765,
          0.17012780904769897,
          -0.009241492487490177,
          -0.28673234581947327,
          -0.0706428810954094,
          -0.03558184206485748,
          -0.26095184683799744,
          0.08247575908899307,
          0.03075612150132656,
          0.1114102303981781
        ],
        [
          0.1055358275771141,
          0.2218875139951706,
          0.4677298367023468,
          -0.24657581746578217,
          0.016139531508088112,
          -0.23070856928825378,
          0.3850160539150238,
          0.16697958111763,
          0.08099749684333801,
          -0.18047477304935455,
          -0.1217254102230072,
          -0.3429124653339386,
          -0.22400669753551483,
          -0.1399025022983551,
          -0.024540547281503677,
          0.0388910286128521,
          0.11775125563144684,
          -0.2545369863510132,
          -0.1966301053762436,
          0.18604102730751038,
          0.31053251028060913,
          -0.15110066533088684,
          0.014001773670315742,
          0.26846128702163696,
          -0.15198111534118652,
          -0.230147585272789,
          -0.1413346529006958,
          0.13090874254703522,
          -0.07863043993711472,
          -0.18377286195755005,
          -0.032453909516334534,
          -0.22248613834381104
        ],
        [
          -0.5171496272087097,
          -0.2820788621902466,
          0.1373540610074997,
          -0.2922244071960449,
          0.03871292993426323,
          -0.7053459882736206,
          0.09420706331729889,
          0.04441359266638756,
          -0.3242763578891754,
          -0.0781274065375328,
          -0.12048228085041046,
          -0.718123197555542,
          -0.13112927973270416,
          -0.4229225516319275,
          -0.031309183686971664,
          0.222175732254982,
          -0.602496325969696,
          0.11351444572210312,
          0.14023160934448242,
          -0.0684560239315033,
          0.013818996027112007,
          -0.1437426507472992,
          0.07796730846166611,
          -0.26984572410583496,
          -0.25423887372016907,
          -0.33090341091156006,
          -0.12736621499061584,
          0.17661166191101074,
          -0.25572070479393005,
          -0.09599500149488449,
          -0.1871311217546463,
          -0.2813594341278076
        ],
        [
          -0.0963737964630127,
          0.21208657324314117,
          -0.49224933981895447,
          -0.13627205789089203,
          0.13686032593250275,
          0.3899584412574768,
          -0.28542056679725647,
          -0.21044538915157318,
          -0.6160168051719666,
          0.15954294800758362,
          -0.10682494193315506,
          0.225930854678154,
          0.17044667899608612,
          -0.0411924384534359,
          0.002015214879065752,
          -0.032891470938920975,
          0.009949317201972008,
          0.0985705778002739,
          0.25141704082489014,
          -0.1570248007774353,
          -0.14681090414524078,
          -0.22760924696922302,
          -0.122289277613163,
          -0.05801790580153465,
          0.2857345938682556,
          0.10351531207561493,
          -0.3517110347747803,
          -0.2311951220035553,
          0.03965086117386818,
          0.17666776478290558,
          -0.026592852547764778,
          0.2392735630273819
        ],
        [
          0.09871254116296768,
          0.018656976521015167,
          -0.2359771877527237,
          -0.17591218650341034,
          0.14010880887508392,
          0.1938992440700531,
          -0.12467134743928909,
          0.12995800375938416,
          0.1783500611782074,
          -0.20304805040359497,
          -0.21916235983371735,
          0.30882200598716736,
          -0.2763907015323639,
          0.2145507037639618,
          -0.16411574184894562,
          -0.16055762767791748,
          -0.011111448518931866,
          -0.2504858672618866,
          0.03460866957902908,
          -0.20769517123699188,
          -0.26466962695121765,
          -0.013573557138442993,
          -0.33246177434921265,
          0.0717269778251648,
          0.22820745408535004,
          0.1032600849866867,
          0.22935344278812408,
          -0.36372047662734985,
          0.03349894657731056,
          -0.24994900822639465,
          -0.1606915444135666,
          -0.022146666422486305
        ],
        [
          -0.0733756497502327,
          -0.4264211654663086,
          0.2910902202129364,
          -0.07434739172458649,
          -0.01269371435046196,
          -0.12356945127248764,
          0.23139068484306335,
          -0.013279671780765057,
          -0.25180864334106445,
          0.11790153384208679,
          -0.1893801987171173,
          -0.16317476332187653,
          0.14045962691307068,
          0.04538814350962639,
          -0.2501260042190552,
          0.12809891998767853,
          -0.4023987352848053,
          0.11588839441537857,
          -0.15812763571739197,
          -0.4227013885974884,
          0.25202253460884094,
          0.14186911284923553,
          0.0464012436568737,
          -0.024413712322711945,
          0.0686512142419815,
          -0.31844815611839294,
          -0.47892603278160095,
          0.19530417025089264,
          -0.43850934505462646,
          -0.2602401375770569,
          -0.3813526928424835,
          -0.20287476480007172
        ],
        [
          0.18451116979122162,
          0.08747954666614532,
          -0.16488295793533325,
          -0.1606937199831009,
          0.04802003130316734,
          0.1342843770980835,
          -0.40968623757362366,
          -0.25676923990249634,
          -0.13356825709342957,
          -0.14684385061264038,
          -0.0002527786127757281,
          0.24334090948104858,
          -0.13510824739933014,
          0.19987836480140686,
          -0.24038384854793549,
          -0.04072755202651024,
          0.09285908192396164,
          -0.13895045220851898,
          -0.05371588468551636,
          -0.12480363249778748,
          0.04938114061951637,
          -0.04378610849380493,
          -0.5996673703193665,
          -0.1367684304714203,
          0.1431874781847,
          0.09581287205219269,
          0.13581541180610657,
          -0.17424994707107544,
          -0.1661861091852188,
          -0.08603748679161072,
          0.13699540495872498,
          0.16331540048122406
        ],
        [
          0.007624153513461351,
          0.203532874584198,
          0.14988325536251068,
          -0.1441769301891327,
          0.09364407509565353,
          -0.15404535830020905,
          0.10092560201883316,
          0.07377248257398605,
          0.15613770484924316,
          -0.19752852618694305,
          0.06427647918462753,
          0.003393108258023858,
          0.09120635688304901,
          0.17772625386714935,
          -0.08999496698379517,
          0.0649930015206337,
          -0.02299918606877327,
          -0.15054869651794434,
          -0.20761731266975403,
          -0.14525814354419708,
          0.17392681539058685,
          0.04352054372429848,
          -0.211825430393219,
          -0.1391092836856842,
          0.1501735895872116,
          -0.10907910764217377,
          0.015578044578433037,
          0.05141614377498627,
          0.2621239721775055,
          0.018206633627414703,
          -0.13422448933124542,
          -0.15482190251350403
        ],
        [
          -0.29083409905433655,
          0.07312994450330734,
          0.2541542053222656,
          0.0293668732047081,
          0.23311768472194672,
          -0.27285999059677124,
          0.37064874172210693,
          0.24448849260807037,
          -0.08708760887384415,
          0.1298379898071289,
          0.11644864082336426,
          -0.06400851160287857,
          0.10635979473590851,
          -0.22721506655216217,
          0.23591823875904083,
          -0.07154025882482529,
          -0.2418013960123062,
          0.07287254929542542,
          -0.09367723762989044,
          0.21856987476348877,
          -0.011935653164982796,
          -0.14199791848659515,
          0.3778761625289917,
          0.0071002887561917305,
          -0.3923861086368561,
          -0.02638542838394642,
          0.08307099342346191,
          0.245890274643898,
          -0.12270341068506241,
          0.20903751254081726,
          0.04948907345533371,
          0.0008463974227197468
        ],
        [
          -0.2507047653198242,
          -0.1591784805059433,
          0.27429109811782837,
          0.08529483526945114,
          0.18892230093479156,
          0.023652082309126854,
          0.42991942167282104,
          0.0531236007809639,
          -0.45929327607154846,
          0.09305969625711441,
          -0.0010886649833992124,
          -0.04552701488137245,
          -0.05714346840977669,
          -0.018798241391777992,
          -0.20578278601169586,
          0.29734835028648376,
          -0.18305251002311707,
          -0.13521333038806915,
          0.06923400610685349,
          0.08680059760808945,
          -0.04765339568257332,
          -0.16335414350032806,
          0.16739347577095032,
          0.15394893288612366,
          -0.1180344745516777,
          0.09393870085477829,
          -0.20012357831001282,
          0.12117224186658859,
          0.09122414886951447,
          0.3246532082557678,
          0.04438067972660065,
          -0.3130252957344055
        ],
        [
          -0.16386233270168304,
          -0.1924428939819336,
          0.4861120581626892,
          -0.2571527659893036,
          0.17576037347316742,
          0.0742548257112503,
          0.33399495482444763,
          0.2175402194261551,
          0.0208835918456316,
          0.016054028645157814,
          0.1548999547958374,
          -0.06100741773843765,
          -0.16440826654434204,
          -0.008557741530239582,
          0.25937309861183167,
          0.03563600778579712,
          -0.07539582252502441,
          -0.23651283979415894,
          -0.3130965232849121,
          0.049010079354047775,
          0.06184175983071327,
          -0.3099757134914398,
          0.12869766354560852,
          0.04696572944521904,
          -0.15033955872058868,
          0.1532757580280304,
          0.008230588398873806,
          0.24543237686157227,
          -0.08876367658376694,
          -0.157481849193573,
          -0.21880517899990082,
          -0.030816342681646347
        ],
        [
          0.24590052664279938,
          0.2502429485321045,
          -0.19449026882648468,
          -0.05088343471288681,
          -0.04953504353761673,
          0.12576556205749512,
          -0.012522554025053978,
          -0.25349733233451843,
          -0.05395248159766197,
          -0.03952270373702049,
          -0.18631474673748016,
          0.291299045085907,
          0.06347053498029709,
          0.2296278029680252,
          -0.025269825011491776,
          0.08177481591701508,
          0.1325509250164032,
          -0.17807942628860474,
          -0.043204739689826965,
          -0.17135973274707794,
          -0.174331396818161,
          -0.10975459963083267,
          -0.41618144512176514,
          -0.2556515336036682,
          0.031185587868094444,
          0.07786395400762558,
          -0.08029519021511078,
          -0.25601926445961,
          0.2204473465681076,
          -0.06751537322998047,
          -0.060419000685214996,
          0.24559751152992249
        ],
        [
          -0.15957383811473846,
          -0.037883732467889786,
          0.2831898033618927,
          0.0017778013134375215,
          -0.13819293677806854,
          -0.03595365583896637,
          0.1985228806734085,
          0.17406587302684784,
          -0.17435705661773682,
          0.021680697798728943,
          -0.07902777194976807,
          -0.31722429394721985,
          0.03820068761706352,
          -0.0681077167391777,
          0.1502034068107605,
          0.14321774244308472,
          -0.16463255882263184,
          -0.36971840262413025,
          -0.24704493582248688,
          -0.15290182828903198,
          0.3080749213695526,
          -0.22735600173473358,
          0.296367347240448,
          0.0769384428858757,
          -0.0880098044872284,
          -0.10316193103790283,
          -0.2311951369047165,
          0.3296535909175873,
          -0.25118663907051086,
          0.2275773286819458,
          -0.0730220302939415,
          -0.05451115965843201
        ],
        [
          -0.310696005821228,
          0.21396657824516296,
          -0.08493638783693314,
          0.1209339052438736,
          0.062211740761995316,
          0.2417500615119934,
          -0.17326967418193817,
          -0.10528592020273209,
          -0.06875550746917725,
          -0.11105985194444656,
          0.03318632394075394,
          0.11476540565490723,
          -0.2004910558462143,
          0.3109436333179474,
          0.06309187412261963,
          -0.17940226197242737,
          -0.1411474198102951,
          -0.16448365151882172,
          0.005446125287562609,
          -0.0217608530074358,
          -0.12639300525188446,
          -0.4339747726917267,
          0.046090006828308105,
          0.11813496053218842,
          -0.27124345302581787,
          0.09541415423154831,
          0.45615726709365845,
          0.015192754566669464,
          -0.25304296612739563,
          0.13629667460918427,
          -0.1426762342453003,
          0.14820700883865356
        ],
        [
          -0.22798414528369904,
          -0.2634046673774719,
          0.18619310855865479,
          -0.19385014474391937,
          0.0759466141462326,
          -0.16601663827896118,
          0.30959996581077576,
          -0.15865644812583923,
          0.20560449361801147,
          -0.2197805643081665,
          0.15809284150600433,
          -0.2660352885723114,
          -0.4362517297267914,
          -0.05469978228211403,
          0.04619608074426651,
          -0.03555314615368843,
          -0.5386059880256653,
          0.08786708116531372,
          -0.04927527904510498,
          0.07015489041805267,
          0.016501013189554214,
          0.011560430750250816,
          0.3329984247684479,
          -0.09656759351491928,
          -0.3375692069530487,
          -0.4016196131706238,
          -0.02758519910275936,
          0.0537639744579792,
          -0.09874799847602844,
          -0.16587695479393005,
          -0.2907012701034546,
          0.01911454275250435
        ],
        [
          -0.4013332724571228,
          -0.166621595621109,
          0.3655892610549927,
          -0.1844644844532013,
          -0.12050553411245346,
          -0.2828221023082733,
          -0.010642355307936668,
          0.14024929702281952,
          -0.35390520095825195,
          -0.24930983781814575,
          -0.03071018122136593,
          -0.11408550292253494,
          0.03776627406477928,
          -0.22942432761192322,
          -0.17403528094291687,
          -0.15150533616542816,
          -0.19488587975502014,
          0.06257934868335724,
          -0.18504779040813446,
          -0.1677248626947403,
          -0.035948146134614944,
          0.0032780782785266638,
          0.05947599932551384,
          0.1361658126115799,
          -0.3213042914867401,
          -0.13581593334674835,
          -0.3397383689880371,
          0.17811085283756256,
          -0.26282596588134766,
          -0.2652270495891571,
          -0.04777299985289574,
          0.041332729160785675
        ],
        [
          -0.32030370831489563,
          -0.01445719413459301,
          0.4445182979106903,
          -0.2651982009410858,
          0.14702486991882324,
          -0.09396705031394958,
          0.20147466659545898,
          0.32635366916656494,
          -0.05758170410990715,
          -0.2963900864124298,
          0.033168140798807144,
          -0.1175910010933876,
          -0.00853519607335329,
          -0.1337485909461975,
          -0.040068112313747406,
          0.17375774681568146,
          -0.1441611647605896,
          -0.00962253101170063,
          -0.14195699989795685,
          -0.06865449249744415,
          0.3946867883205414,
          -0.13809747993946075,
          0.0617968775331974,
          -0.06807459890842438,
          -0.24019823968410492,
          0.1777106076478958,
          -0.3143998086452484,
          -0.014689257368445396,
          -0.2255719006061554,
          -0.16536469757556915,
          -0.22196850180625916,
          -0.016688110306859016
        ],
        [
          -0.3023144006729126,
          0.13105490803718567,
          0.4018092751502991,
          0.07986356317996979,
          0.05217062681913376,
          -0.11709220707416534,
          0.00042799016227945685,
          0.1541796624660492,
          0.10159799456596375,
          0.08863084018230438,
          -0.0017899962840601802,
          -0.5007331967353821,
          0.2518770694732666,
          -0.33351925015449524,
          0.32350000739097595,
          0.04142607003450394,
          0.026866290718317032,
          0.15477383136749268,
          -0.09318135678768158,
          0.11005555093288422,
          0.07334011048078537,
          -0.20706352591514587,
          0.25344741344451904,
          0.13272933661937714,
          0.023553229868412018,
          -0.23968930542469025,
          -0.13968420028686523,
          0.2516426742076874,
          -0.34240666031837463,
          0.19416317343711853,
          -0.06392708420753479,
          -0.2523832619190216
        ],
        [
          -0.06408360600471497,
          -0.13710512220859528,
          0.41581442952156067,
          0.2101844996213913,
          -0.02632877603173256,
          -0.19661971926689148,
          0.28955134749412537,
          -0.04295073822140694,
          -0.3321327865123749,
          -0.029136251658201218,
          -0.1486131250858307,
          0.00166160031221807,
          -0.09293755143880844,
          -0.29635441303253174,
          0.24214160442352295,
          0.045094940811395645,
          -0.14837610721588135,
          -0.2015623301267624,
          -0.32920002937316895,
          -0.3890696167945862,
          0.2407725602388382,
          -0.23671580851078033,
          0.30142074823379517,
          0.30060335993766785,
          -0.02531333826482296,
          -0.2765103280544281,
          0.05522141233086586,
          0.05739139765501022,
          -0.3066067695617676,
          0.2934523820877075,
          -0.21056297421455383,
          0.014700482599437237
        ],
        [
          -0.2811823785305023,
          -0.06129607558250427,
          0.11289163678884506,
          -0.2574719488620758,
          -0.10158096998929977,
          -0.3172134459018707,
          0.39891722798347473,
          0.05141220986843109,
          -0.12341075390577316,
          0.02509886957705021,
          -0.021369175985455513,
          -0.16735997796058655,
          -0.08806965500116348,
          -0.2407391220331192,
          -0.228729709982872,
          0.3569856286048889,
          0.02104598842561245,
          0.048778511583805084,
          0.08239032328128815,
          -0.1870594471693039,
          -0.09247668832540512,
          -0.24194978177547455,
          0.3347858190536499,
          0.2025911957025528,
          0.001119900611229241,
          -0.18109135329723358,
          -0.25772303342819214,
          0.11985208094120026,
          -0.11855190992355347,
          -0.07652781903743744,
          -0.22745005786418915,
          -0.5518500804901123
        ],
        [
          0.23407508432865143,
          -0.1805168092250824,
          -0.3213527202606201,
          -0.13224267959594727,
          -0.20282992720603943,
          0.09015872329473495,
          -0.43571171164512634,
          -0.06116065755486488,
          0.0043572718277573586,
          -0.16027075052261353,
          -0.11398071050643921,
          0.28885138034820557,
          -0.28647956252098083,
          0.18502335250377655,
          -0.14857321977615356,
          -0.21045947074890137,
          0.02718261256814003,
          -0.21905337274074554,
          0.048616617918014526,
          -0.22509092092514038,
          -0.0482972152531147,
          0.1483326554298401,
          -0.8508309125900269,
          -0.029321888461709023,
          0.24979117512702942,
          0.17270739376544952,
          0.3083108365535736,
          -0.05615057796239853,
          -0.018417485058307648,
          0.125189870595932,
          0.06002004072070122,
          -0.14468461275100708
        ],
        [
          -0.05365697667002678,
          -0.2417808324098587,
          0.09373752027750015,
          0.2031048983335495,
          0.1974111646413803,
          -0.12845762073993683,
          -0.1252058744430542,
          -0.0227846447378397,
          0.14398717880249023,
          0.08865273743867874,
          0.14000733196735382,
          0.22752182185649872,
          -0.19195114076137543,
          -0.021590517833828926,
          0.20036999881267548,
          0.2465164065361023,
          0.0070344083942472935,
          -0.14780056476593018,
          -0.11876572668552399,
          -0.12987667322158813,
          -0.09946615248918533,
          -0.04755937680602074,
          -0.22413530945777893,
          0.11839324235916138,
          -0.1284044086933136,
          -0.24532459676265717,
          0.07648015022277832,
          0.13783389329910278,
          -0.1904391646385193,
          -0.11480951309204102,
          0.017506368458271027,
          -0.08356624096632004
        ],
        [
          -0.31186699867248535,
          -0.4460500478744507,
          0.21466384828090668,
          -0.07842282205820084,
          0.08291899412870407,
          -0.04626414552330971,
          0.43475663661956787,
          0.1944068968296051,
          -0.0986793041229248,
          0.05985217168927193,
          0.09086959809064865,
          -0.12103663384914398,
          -0.33287104964256287,
          -0.1865251660346985,
          -0.16037027537822723,
          -0.003936330787837505,
          0.07069500535726547,
          0.08262187242507935,
          -0.02311178669333458,
          -0.24938218295574188,
          0.35006582736968994,
          0.0870743915438652,
          0.027677003294229507,
          0.0322515033185482,
          -0.17100125551223755,
          -0.18973511457443237,
          -0.40768808126449585,
          -0.06286679208278656,
          -0.20736071467399597,
          -0.012857017107307911,
          -0.22815319895744324,
          -0.5678518414497375
        ],
        [
          0.018397821113467216,
          -0.04019363597035408,
          0.0688597559928894,
          -0.1282036155462265,
          0.1249990165233612,
          0.17055106163024902,
          0.11705270409584045,
          -0.047869518399238586,
          -0.2609521746635437,
          0.0009301996324211359,
          -0.07314056158065796,
          0.1906404197216034,
          0.16328686475753784,
          0.15685895085334778,
          -0.23834064602851868,
          -0.2473738193511963,
          0.03407302498817444,
          -0.19086192548274994,
          -0.009735776111483574,
          0.037765562534332275,
          0.04218575358390808,
          -0.4518285095691681,
          -0.2807813882827759,
          -0.027562737464904785,
          -0.03724592179059982,
          0.13362814486026764,
          0.4085339903831482,
          0.03443150222301483,
          -0.4848823845386505,
          0.16522817313671112,
          0.05687129497528076,
          -0.12630359828472137
        ],
        [
          -0.39364612102508545,
          -0.08691273629665375,
          0.2602883279323578,
          -0.26776862144470215,
          0.0620930939912796,
          -0.014435596764087677,
          0.13184355199337006,
          0.06796901673078537,
          -0.22193288803100586,
          -0.32901108264923096,
          -0.2797413766384125,
          0.06892456859350204,
          0.09590093046426773,
          0.08104828745126724,
          0.06545773893594742,
          -0.15245695412158966,
          -0.0749918520450592,
          -0.23526360094547272,
          -0.1736161857843399,
          -0.4595229923725128,
          0.1883302479982376,
          0.07821337878704071,
          0.08113514631986618,
          0.0840042233467102,
          -0.30563995242118835,
          -0.1508760005235672,
          -0.3154613673686981,
          0.13765846192836761,
          -0.41553017497062683,
          -0.02290961518883705,
          -0.21590882539749146,
          -0.18809713423252106
        ],
        [
          -0.09122562408447266,
          0.0946478322148323,
          -0.19850704073905945,
          -0.06272951513528824,
          -0.2325064241886139,
          0.05444380268454552,
          -0.3423960208892822,
          0.001273185946047306,
          0.0695444867014885,
          0.039288341999053955,
          -0.22793340682983398,
          0.2603207230567932,
          -0.07796968519687653,
          0.28533095121383667,
          -0.18342307209968567,
          -0.12361062318086624,
          0.034830719232559204,
          0.08751019835472107,
          0.08658376336097717,
          -0.063540518283844,
          0.10947061330080032,
          -0.2380921095609665,
          0.2543822228908539,
          -0.07854273915290833,
          -0.03706919774413109,
          0.33666035532951355,
          0.036744918674230576,
          0.06112872436642647,
          -0.21975891292095184,
          0.2889813184738159,
          -0.06217840686440468,
          -0.2393409013748169
        ]
      ],
      "bias": [
        0.06236129626631737,
        -0.03130001202225685,
        0.14454272389411926,
        -0.06562832742929459,
        -0.15002375841140747,
        0.023630274459719658,
        -0.02796056680381298,
        -0.1470102220773697,
        -0.012433133088052273,
        -0.07920777052640915,
        -0.06422927230596542,
        0.21643179655075073,
        0.008992544375360012,
        0.057527802884578705,
        -0.07286170870065689,
        -0.13005377352237701,
        0.002643655054271221,
        -0.09372743219137192,
        0.021169859915971756,
        0.029069378972053528,
        -0.045087285339832306,
        0.1996106654405594,
        -0.06286443024873734,
        -0.11669657379388809,
        -0.01120192464441061,
        -0.004214195068925619,
        0.10583915561437607,
        -0.03237240016460419,
        0.06605472415685654,
        -0.050842732191085815,
        -0.02202271856367588,
        0.06470774114131927
      ]
    },
    {
      "layer_index": 4,
      "layer_name": "dense_2",
      "kernel": [
        [
          -0.3205876350402832,
          -0.40777313709259033,
          0.4643811285495758,
          -0.25704512000083923,
          -0.06174689158797264,
          -0.4470425248146057,
          -0.44840630888938904,
          -0.6994354128837585,
          -0.2333535999059677,
          -0.2277669757604599,
          -0.17353108525276184,
          0.10885471105575562,
          -0.40021374821662903,
          0.23950113356113434,
          -0.42617493867874146,
          0.3691166341304779
        ],
        [
          0.09149498492479324,
          -0.023745451122522354,
          0.19085539877414703,
          0.008020010776817799,
          0.14025308191776276,
          -0.2581733763217926,
          -0.4651157259941101,
          0.040254414081573486,
          0.02824055589735508,
          -0.36716628074645996,
          -0.08876965939998627,
          0.07277167588472366,
          -0.48773571848869324,
          -0.05161770433187485,
          -0.4156036972999573,
          0.23084458708763123
        ],
        [
          -0.1320175677537918,
          -0.1010952740907669,
          -0.023426096886396408,
          0.18872617185115814,
          -0.05533091723918915,
          0.270250141620636,
          0.294302761554718,
          -0.513765811920166,
          -0.11744639277458191,
          0.24372784793376923,
          -0.055641401559114456,
          -0.39167293906211853,
          -0.5139150619506836,
          -0.17478394508361816,
          -0.0919424295425415,
          0.08640582114458084
        ],
        [
          0.009561062790453434,
          0.14995571970939636,
          0.34985223412513733,
          0.2542145550251007,
          0.23737482726573944,
          -0.15961512923240662,
          0.19449585676193237,
          -0.31960824131965637,
          -0.10427764058113098,
          0.32907113432884216,
          0.3001681864261627,
          -0.2364073246717453,
          0.3049808144569397,
          -0.22122393548488617,
          0.04317157715559006,
          0.3090968132019043
        ],
        [
          -0.2534995377063751,
          -0.4027346968650818,
          0.2713724374771118,
          0.44096606969833374,
          -0.5896371603012085,
          0.2565794289112091,
          -0.016474077478051186,
          0.18417732417583466,
          -0.3142035901546478,
          0.2855452597141266,
          -0.04493438079953194,
          0.06101159378886223,
          -0.014309238642454147,
          -0.43292751908302307,
          -0.014296230860054493,
          0.2374352365732193
        ],
        [
          0.1475220024585724,
          -0.22834952175617218,
          0.24377083778381348,
          0.04134518653154373,
          0.33705851435661316,
          -0.5016592144966125,
          -0.5330910682678223,
          -0.5334720611572266,
          -0.26977476477622986,
          -0.35254231095314026,
          0.0976896584033966,
          -0.5754570364952087,
          -0.6375238299369812,
          0.020737692713737488,
          -0.19151775538921356,
          0.13877907395362854
        ],
        [
          -0.1053994670510292,
          -0.19721738994121552,
          -0.03888615593314171,
          -0.7210754752159119,
          -0.13581253588199615,
          0.11386096477508545,
          -0.09185085445642471,
          0.3418920636177063,
          -0.41326653957366943,
          0.470787912607193,
          -0.1126951202750206,
          -0.2733771502971649,
          -0.2856800854206085,
          -0.26752370595932007,
          -0.1851496696472168,
          0.0682295709848404
        ],
        [
          -0.3488138020038605,
          -0.28403568267822266,
          0.2898060977458954,
          -0.03398576006293297,
          -0.2551858127117157,
          0.02175849676132202,
          0.1544739305973053,
          -0.06454616039991379,
          -0.6736536026000977,
          0.20113059878349304,
          -0.27245891094207764,
          -0.23880523443222046,
          0.16067056357860565,
          -0.035952407866716385,
          -0.3802984952926636,
          0.3550483286380768
        ],
        [
          0.1122417151927948,
          0.19845253229141235,
          0.30505338311195374,
          0.27816036343574524,
          -0.03558049350976944,
          0.22317704558372498,
          0.11985568702220917,
          -0.048266664147377014,
          0.1885242611169815,
          0.14060814678668976,
          0.05428306385874748,
          0.1589387208223343,
          -0.14462360739707947,
          0.07324300706386566,
          -0.264525443315506,
          -0.2452387809753418
        ],
        [
          -0.2158534675836563,
          -0.3498440384864807,
          0.2604674994945526,
          -0.21087704598903656,
          0.1701657772064209,
          0.1026725322008133,
          -0.15300990641117096,
          -0.2791377604007721,
          -0.221403568983078,
          0.1525362879037857,
          -0.24831146001815796,
          -0.3282944858074188,
          -0.008052729070186615,
          -0.36881300806999207,
          0.20796170830726624,
          -0.08379220962524414
        ],
        [
          -0.11649943888187408,
          0.09749537706375122,
          -0.04433492571115494,
          -0.0011320511111989617,
          -0.12159708142280579,
          0.04233880713582039,
          0.32740268111228943,
          -0.058029886335134506,
          -0.4313472807407379,
          0.014357218518853188,
          -0.2509399652481079,
          0.03134392201900482,
          0.023571886122226715,
          0.13294009864330292,
          0.05387798324227333,
          -0.12288164347410202
        ],
        [
          0.24083252251148224,
          -0.438759982585907,
          0.16170765459537506,
          0.2194163203239441,
          -0.5881558656692505,
          -0.22692008316516876,
          -0.20093666017055511,
          -0.1514579802751541,
          0.2909724712371826,
          -0.1526048183441162,
          0.36755621433258057,
          -0.380668580532074,
          -0.12382156401872635,
          -0.910703718662262,
          0.20043548941612244,
          -0.1832888424396515
        ],
        [
          0.08554237335920334,
          -0.04135560244321823,
          0.24281522631645203,
          0.09124446660280228,
          -0.02145637385547161,
          -0.2873058617115021,
          0.1034126803278923,
          -0.4241265654563904,
          0.1714816391468048,
          -0.14709646999835968,
          0.06328075379133224,
          -0.035400066524744034,
          -0.07083074003458023,
          0.4392262101173401,
          0.09268359839916229,
          0.10802803188562393
        ],
        [
          -0.00129535177256912,
          -0.258611261844635,
          0.0492168627679348,
          0.004305507987737656,
          0.1508447527885437,
          -0.29087790846824646,
          -0.41766002774238586,
          -0.5213457942008972,
          0.09784793853759766,
          -0.2048385590314865,
          -0.2151237279176712,
          0.1332167237997055,
          -0.2885715067386627,
          0.08254639804363251,
          -0.14936523139476776,
          -0.5638588070869446
        ],
        [
          0.29208412766456604,
          -0.13509543240070343,
          -0.15198759734630585,
          -0.18643507361412048,
          -0.22310513257980347,
          0.22077599167823792,
          -0.006907390430569649,
          0.06698431074619293,
          0.2656394839286804,
          0.08902885019779205,
          -0.23391717672348022,
          0.01810913160443306,
          0.13265439867973328,
          0.6713339686393738,
          -0.3450406491756439,
          -0.10571417212486267
        ],
        [
          -0.4778279960155487,
          -0.22589391469955444,
          0.36114081740379333,
          0.03866911679506302,
          -0.4745091199874878,
          0.19295881688594818,
          -0.005541148129850626,
          0.10853064805269241,
          -0.5125598311424255,
          0.32245326042175293,
          -0.4595058858394623,
          -0.012472431175410748,
          0.0708053931593895,
          -0.20857809484004974,
          -0.35846754908561707,
          0.2702132761478424
        ],
        [
          0.16197772324085236,
          -0.035087455064058304,
          0.3288378417491913,
          0.1524224728345871,
          -0.18669746816158295,
          -0.44319337606430054,
          -0.5061368942260742,
          -0.6320729851722717,
          -0.06666383147239685,
          -0.2310500293970108,
          -0.32327932119369507,
          0.25640031695365906,
          -0.5887336730957031,
          0.2851516604423523,
          0.37695401906967163,
          0.06934864073991776
        ],
        [
          -0.0426303893327713,
          0.17619019746780396,
          -0.0611080676317215,
          0.0626579225063324,
          -0.09661868214607239,
          0.29162028431892395,
          -0.2541399896144867,
          0.28042903542518616,
          0.13419362902641296,
          0.06338805705308914,
          0.31639498472213745,
          -0.05267329514026642,
          -0.2647429406642914,
          -0.09305520355701447,
          0.011003851890563965,
          -0.1928262859582901
        ],
        [
          0.04279325157403946,
          -0.05160307511687279,
          -0.005014070309698582,
          -0.29121342301368713,
          -0.1125844344496727,
          -0.015638191252946854,
          -0.3585790991783142,
          -0.4377359449863434,
          0.15157710015773773,
          0.16767257452011108,
          -0.054849300533533096,
          -0.08802664279937744,
          0.008065697737038136,
          0.22801266610622406,
          -0.3781163990497589,
          0.24383190274238586
        ],
        [
          0.27919796109199524,
          -0.20112833380699158,
          0.3334086835384369,
          -0.255298912525177,
          0.052782490849494934,
          -0.09947004169225693,
          -0.11572633683681488,
          -0.5279574990272522,
          0.08287561684846878,
          0.09328353404998779,
          0.008838916197419167,
          0.31832024455070496,
          -0.02625873312354088,
          0.21823431551456451,
          0.12061301618814468,
          0.39084503054618835
        ],
        [
          -0.07278156280517578,
          -0.4859605133533478,
          0.22575201094150543,
          0.28708770871162415,
          -0.5686507821083069,
          -0.17871908843517303,
          0.05069514364004135,
          0.26657068729400635,
          -0.7441861033439636,
          0.292069673538208,
          -0.2430490404367447,
          -0.3382374942302704,
          -0.08416056632995605,
          -0.5701338648796082,
          -0.36293771862983704,
          0.2363290786743164
        ],
        [
          -0.14439290761947632,
          -0.18645325303077698,
          0.14845305681228638,
          0.3152501881122589,
          -0.2717878818511963,
          -0.18582558631896973,
          -0.44958198070526123,
          -0.06387113034725189,
          -0.032356519252061844,
          -0.0027128318324685097,
          -0.1895875185728073,
          0.07200492173433304,
          -0.09600809216499329,
          0.2436591535806656,
          0.10929769277572632,
          0.22779740393161774
        ],
        [
          -0.05713950842618942,
          -0.19793696701526642,
          -0.14463357627391815,
          -0.09207218885421753,
          -0.2492620348930359,
          0.09831353276968002,
          0.23052653670310974,
          -0.4633982479572296,
          -0.49225175380706787,
          -0.12948773801326752,
          -0.03937160596251488,
          -0.3386287987232208,
          0.5320805311203003,
          -0.4551260769367218,
          -0.5574325323104858,
          0.10973022878170013
        ],
        [
          0.11098702251911163,
          -0.16826221346855164,
          0.056629493832588196,
          0.2872527539730072,
          0.20872877538204193,
          0.15522174537181854,
          0.21125182509422302,
          0.17040346562862396,
          0.2574877142906189,
          -0.13653099536895752,
          -0.26460620760917664,
          0.1805165410041809,
          0.09835204482078552,
          0.05705239251255989,
          -0.04739154130220413,
          0.15898947417736053
        ],
        [
          0.04656263068318367,
          0.05509183555841446,
          0.29869699478149414,
          -0.008524149656295776,
          -0.22670547664165497,
          -0.5231066942214966,
          -0.5894588232040405,
          -0.4549214839935303,
          -0.14937034249305725,
          -0.3100692331790924,
          -0.16979177296161652,
          0.269081711769104,
          -0.47364404797554016,
          0.21191000938415527,
          -0.155514195561409,
          0.011369959451258183
        ],
        [
          -0.4820149838924408,
          0.458392471075058,
          0.24180524051189423,
          0.15213468670845032,
          -0.07534227520227432,
          -0.22765175998210907,
          -0.2939451336860657,
          -0.5299034714698792,
          0.19414719939231873,
          -0.2447030395269394,
          0.07156148552894592,
          -0.5680685639381409,
          -0.4063724875450134,
          0.07941942662000656,
          0.009522724896669388,
          -0.25226321816444397
        ],
        [
          -0.10326778143644333,
          -0.013735242187976837,
          0.31108859181404114,
          0.10049809515476227,
          0.2543873190879822,
          -0.35665714740753174,
          -0.5186223983764648,
          -0.30677762627601624,
          0.3325624465942383,
          0.2532685697078705,
          -0.26660680770874023,
          -0.14869606494903564,
          -0.31347745656967163,
          -0.2576455771923065,
          0.059022773057222366,
          0.27822890877723694
        ],
        [
          -0.031306035816669464,
          -0.2686608135700226,
          0.25136035680770874,
          0.3085117042064667,
          -0.24511653184890747,
          -0.3609689772129059,
          0.09853126108646393,
          0.1815033257007599,
          -0.2770676612854004,
          0.27506932616233826,
          -0.08909865468740463,
          -0.386407732963562,
          -0.078734390437603,
          -0.6231313943862915,
          -0.2931305468082428,
          0.2290739119052887
        ],
        [
          -0.05778806656599045,
          -0.10950928181409836,
          0.1747554987668991,
          0.3274308145046234,
          0.040474437177181244,
          -0.36621806025505066,
          -0.30796873569488525,
          -0.4748717248439789,
          0.26701948046684265,
          -0.1165626123547554,
          -0.5650033354759216,
          -0.023876765742897987,
          -0.1017095148563385,
          -0.1970573216676712,
          0.11938828229904175,
          0.32660481333732605
        ],
        [
          -0.04261237755417824,
          -0.07164901494979858,
          0.06781058758497238,
          0.06309579312801361,
          0.2005666047334671,
          0.2512347400188446,
          0.36544251441955566,
          0.2510744631290436,
          0.29514285922050476,
          -0.15623947978019714,
          0.12559767067432404,
          0.04200022667646408,
          0.09731512516736984,
          -0.28286758065223694,
          -0.08777257055044174,
          -0.022818544879555702
        ],
        [
          -0.1677742898464203,
          -0.10321557521820068,
          0.24914130568504333,
          -0.2940455675125122,
          0.13945460319519043,
          -0.1880452036857605,
          -0.19258682429790497,
          0.12507364153862,
          0.03456200659275055,
          -0.3707602024078369,
          -0.028849108144640923,
          0.19334104657173157,
          -0.284601092338562,
          -0.0759347528219223,
          -0.04758867993950844,
          -0.08948379755020142
        ],
        [
          0.1184895858168602,
          0.2382696121931076,
          -0.10652120411396027,
          0.00047195079969242215,
          -0.18282592296600342,
          -0.13977539539337158,
          -0.3444698750972748,
          -0.3790358304977417,
          0.11173450946807861,
          -0.23691314458847046,
          -0.19400301575660706,
          0.3733031451702118,
          -0.3529101014137268,
          0.15225449204444885,
          -0.5986583828926086,
          0.15356391668319702
        ]
      ],
      "bias": [
        0.19066332280635834,
        0.15911006927490234,
        0.017184093594551086,
        -0.012288057245314121,
        0.22998331487178802,
        0.3911932110786438,
        0.3555135726928711,
        0.1609300673007965,
        0.2159140259027481,
        0.4324020445346832,
        0.24699559807777405,
        0.01516873762011528,
        0.1344105750322342,
        0.1538112461566925,
        0.008792677894234657,
        -0.7372883558273315
      ]
    },
    {
      "layer_index": 5,
      "layer_name": "dense_3",
      "kernel": [
        [
          -0.2715848684310913
        ],
        [
          -0.35233718156814575
        ],
        [
          -0.3095124363899231
        ],
        [
          0.31607115268707275
        ],
        [
          -0.4544292688369751
        ],
        [
          0.13568861782550812
        ],
        [
          0.5601086616516113
        ],
        [
          0.7229523062705994
        ],
        [
          -0.44429558515548706
        ],
        [
          0.5471471548080444
        ],
        [
          -0.21487632393836975
        ],
        [
          -0.6153786778450012
        ],
        [
          0.8323578238487244
        ],
        [
          -0.3040500581264496
        ],
        [
          -0.05577321723103523
        ],
        [
          -0.598811686038971
        ]
      ],
      "bias": [
        0.19573304057121277
      ]
    }
  ]
}